<?xml version="1.0"?>
<opencv_storage>
<stage11>
  <maxWeakCount>5</maxWeakCount>
  <stageThreshold>-4.4376635551452637e-01</stageThreshold>
  <weakClassifiers>
    <_>
      <internalNodes>
        0 -1 80145 2.0549222826957703e-03</internalNodes>
      <leafValues>
        -6.8750000000000000e-01 4.5833334326744080e-01</leafValues></_>
    <_>
      <internalNodes>
        0 -1 15516 7.8848432749509811e-03</internalNodes>
      <leafValues>
        -5.7479935884475708e-01 5.1401281356811523e-01</leafValues></_>
    <_>
      <internalNodes>
        0 -1 65169 2.3010268807411194e-02</internalNodes>
      <leafValues>
        -8.4028649330139160e-01 3.5851410031318665e-01</leafValues></_>
    <_>
      <internalNodes>
        0 -1 57029 -4.0564746595919132e-03</internalNodes>
      <leafValues>
        -8.8861799240112305e-01 2.8984472155570984e-01</leafValues></_>
    <_>
      <internalNodes>
        0 -1 42951 1.7066890001296997e-01</internalNodes>
      <leafValues>
        -8.6567074060440063e-01 2.9820150136947632e-01</leafValues></_></weakClassifiers></stage11>
</opencv_storage>
