<?xml version="1.0"?>
<opencv_storage>
<stage5>
  <maxWeakCount>6</maxWeakCount>
  <stageThreshold>-1.4028381109237671e+00</stageThreshold>
  <weakClassifiers>
    <_>
      <internalNodes>
        0 -1 1153 -1.3814215548336506e-02</internalNodes>
      <leafValues>
        7.6774191856384277e-01 -4.8571428656578064e-01</leafValues></_>
    <_>
      <internalNodes>
        0 -1 70107 8.3768385229632258e-04</internalNodes>
      <leafValues>
        -7.6931256055831909e-01 4.9940478801727295e-01</leafValues></_>
    <_>
      <internalNodes>
        0 -1 44303 3.8921054452657700e-02</internalNodes>
      <leafValues>
        -6.5623360872268677e-01 5.7098627090454102e-01</leafValues></_>
    <_>
      <internalNodes>
        0 -1 121732 -2.7604226022958755e-02</internalNodes>
      <leafValues>
        6.0535234212875366e-01 -6.6670006513595581e-01</leafValues></_>
    <_>
      <internalNodes>
        0 -1 125438 -3.0659809708595276e-03</internalNodes>
      <leafValues>
        4.4182181358337402e-01 -9.0262585878372192e-01</leafValues></_>
    <_>
      <internalNodes>
        0 -1 17226 -1.7397262156009674e-02</internalNodes>
      <leafValues>
        8.1994867324829102e-01 -4.9391928315162659e-01</leafValues></_></weakClassifiers></stage5>
</opencv_storage>
