<?xml version="1.0"?>
<opencv_storage>
<stage6>
  <maxWeakCount>5</maxWeakCount>
  <stageThreshold>-8.7908673286437988e-01</stageThreshold>
  <weakClassifiers>
    <_>
      <internalNodes>
        0 -1 1156 -1.0851828381419182e-02</internalNodes>
      <leafValues>
        7.7380955219268799e-01 -5.6034481525421143e-01</leafValues></_>
    <_>
      <internalNodes>
        0 -1 55049 1.1489864438772202e-02</internalNodes>
      <leafValues>
        -7.6006740331649780e-01 5.1895183324813843e-01</leafValues></_>
    <_>
      <internalNodes>
        0 -1 160018 -1.2215891852974892e-02</internalNodes>
      <leafValues>
        9.0043240785598755e-01 -4.8381227254867554e-01</leafValues></_>
    <_>
      <internalNodes>
        0 -1 137192 3.8760961033403873e-03</internalNodes>
      <leafValues>
        -8.7099593877792358e-01 4.4413617253303528e-01</leafValues></_>
    <_>
      <internalNodes>
        0 -1 92680 2.2386889904737473e-02</internalNodes>
      <leafValues>
        -8.1703984737396240e-01 4.8161453008651733e-01</leafValues></_></weakClassifiers></stage6>
</opencv_storage>
