<?xml version="1.0"?>
<opencv_storage>
<stage11>
  <maxWeakCount>6</maxWeakCount>
  <stageThreshold>-5.3438991308212280e-01</stageThreshold>
  <weakClassifiers>
    <_>
      <internalNodes>
        0 -1 25864 7.1285427547991276e-03</internalNodes>
      <leafValues>
        -6.0000002384185791e-01 4.9090909957885742e-01</leafValues></_>
    <_>
      <internalNodes>
        0 -1 159805 -1.3598296791315079e-02</internalNodes>
      <leafValues>
        6.0745698213577271e-01 -4.8378792405128479e-01</leafValues></_>
    <_>
      <internalNodes>
        0 -1 106031 7.3418160900473595e-03</internalNodes>
      <leafValues>
        -3.0517190694808960e-01 8.4513556957244873e-01</leafValues></_>
    <_>
      <internalNodes>
        0 -1 156422 2.0136516468483023e-05</internalNodes>
      <leafValues>
        -8.1977450847625732e-01 3.8446080684661865e-01</leafValues></_>
    <_>
      <internalNodes>
        0 -1 58908 5.8837048709392548e-04</internalNodes>
      <leafValues>
        3.2416149973869324e-01 -8.4842282533645630e-01</leafValues></_>
    <_>
      <internalNodes>
        0 -1 122263 1.1747999116778374e-02</internalNodes>
      <leafValues>
        -8.3124530315399170e-01 2.5927385687828064e-01</leafValues></_></weakClassifiers></stage11>
</opencv_storage>
