<?xml version="1.0"?>
<opencv_storage>
<stage14>
  <maxWeakCount>7</maxWeakCount>
  <stageThreshold>-8.2146275043487549e-01</stageThreshold>
  <weakClassifiers>
    <_>
      <internalNodes>
        0 -1 13528 3.6710642278194427e-02</internalNodes>
      <leafValues>
        -4.0740740299224854e-01 6.3057327270507813e-01</leafValues></_>
    <_>
      <internalNodes>
        0 -1 146697 6.0102401766926050e-04</internalNodes>
      <leafValues>
        -6.0881769657135010e-01 4.1020372509956360e-01</leafValues></_>
    <_>
      <internalNodes>
        0 -1 55813 4.7650882042944431e-03</internalNodes>
      <leafValues>
        -8.8330608606338501e-01 2.7297428250312805e-01</leafValues></_>
    <_>
      <internalNodes>
        0 -1 69016 -2.2423567716032267e-03</internalNodes>
      <leafValues>
        3.0743405222892761e-01 -8.2843244075775146e-01</leafValues></_>
    <_>
      <internalNodes>
        0 -1 128088 -3.8723284378647804e-03</internalNodes>
      <leafValues>
        3.6928105354309082e-01 -6.6932344436645508e-01</leafValues></_>
    <_>
      <internalNodes>
        0 -1 78225 -2.2166303824633360e-04</internalNodes>
      <leafValues>
        -9.3186199665069580e-01 2.5311762094497681e-01</leafValues></_>
    <_>
      <internalNodes>
        0 -1 121354 -1.4028287259861827e-03</internalNodes>
      <leafValues>
        -9.3748253583908081e-01 1.6781879961490631e-01</leafValues></_></weakClassifiers></stage14>
</opencv_storage>
