<?xml version="1.0"?>
<opencv_storage>
<cascade>
  <stageType>BOOST</stageType>
  <featureType>HAAR</featureType>
  <height>32</height>
  <width>32</width>
  <stageParams>
    <boostType>GAB</boostType>
    <minHitRate>9.9900001287460327e-01</minHitRate>
    <maxFalseAlarm>2.0000000298023224e-01</maxFalseAlarm>
    <weightTrimRate>9.4999999999999996e-01</weightTrimRate>
    <maxDepth>1</maxDepth>
    <maxWeakCount>100</maxWeakCount></stageParams>
  <featureParams>
    <maxCatCount>0</maxCatCount>
    <featSize>1</featSize>
    <mode>BASIC</mode></featureParams>
  <stageNum>8</stageNum>
  <stages>
    <!-- stage 0 -->
    <_>
      <maxWeakCount>1</maxWeakCount>
      <stageThreshold>1.</stageThreshold>
      <weakClassifiers>
        <_>
          <internalNodes>
            0 -1 11 3.6491751670837402e-02</internalNodes>
          <leafValues>
            -1. 1.</leafValues></_></weakClassifiers></_>
    <!-- stage 1 -->
    <_>
      <maxWeakCount>1</maxWeakCount>
      <stageThreshold>9.8019802570343018e-01</stageThreshold>
      <weakClassifiers>
        <_>
          <internalNodes>
            0 -1 8 5.2960306406021118e-02</internalNodes>
          <leafValues>
            -1. 9.8019802570343018e-01</leafValues></_></weakClassifiers></_>
    <!-- stage 2 -->
    <_>
      <maxWeakCount>3</maxWeakCount>
      <stageThreshold>6.3436162471771240e-01</stageThreshold>
      <weakClassifiers>
        <_>
          <internalNodes>
            0 -1 15 1.9574370235204697e-02</internalNodes>
          <leafValues>
            -7.9245281219482422e-01 8.9361703395843506e-01</leafValues></_>
        <_>
          <internalNodes>
            0 -1 1 1.3659626245498657e-02</internalNodes>
          <leafValues>
            -9.4820839166641235e-01 7.3578631877899170e-01</leafValues></_>
        <_>
          <internalNodes>
            0 -1 9 3.1261347234249115e-02</internalNodes>
          <leafValues>
            -9.5087921619415283e-01 6.9102811813354492e-01</leafValues></_></weakClassifiers></_>
    <!-- stage 3 -->
    <_>
      <maxWeakCount>3</maxWeakCount>
      <stageThreshold>5.4535919427871704e-01</stageThreshold>
      <weakClassifiers>
        <_>
          <internalNodes>
            0 -1 12 -5.5702566896798089e-05</internalNodes>
          <leafValues>
            6.4406782388687134e-01 -9.2682927846908569e-01</leafValues></_>
        <_>
          <internalNodes>
            0 -1 16 4.4379319297149777e-04</internalNodes>
          <leafValues>
            -7.6330417394638062e-01 8.2519072294235229e-01</leafValues></_>
        <_>
          <internalNodes>
            0 -1 7 3.7079486995935440e-02</internalNodes>
          <leafValues>
            -9.2169702053070068e-01 6.6459560394287109e-01</leafValues></_></weakClassifiers></_>
    <!-- stage 4 -->
    <_>
      <maxWeakCount>3</maxWeakCount>
      <stageThreshold>1.2872341275215149e-01</stageThreshold>
      <weakClassifiers>
        <_>
          <internalNodes>
            0 -1 5 -3.6817862564930692e-05</internalNodes>
          <leafValues>
            -1. 6.1290323734283447e-01</leafValues></_>
        <_>
          <internalNodes>
            0 -1 14 -4.4211987406015396e-03</internalNodes>
          <leafValues>
            5.6554055213928223e-01 -9.6302300691604614e-01</leafValues></_>
        <_>
          <internalNodes>
            0 -1 6 -2.3458616851712577e-05</internalNodes>
          <leafValues>
            -1. 4.7884321212768555e-01</leafValues></_></weakClassifiers></_>
    <!-- stage 5 -->
    <_>
      <maxWeakCount>1</maxWeakCount>
      <stageThreshold>6.6666668653488159e-01</stageThreshold>
      <weakClassifiers>
        <_>
          <internalNodes>
            0 -1 4 2.2737283143214881e-04</internalNodes>
          <leafValues>
            6.6666668653488159e-01 -1.</leafValues></_></weakClassifiers></_>
    <!-- stage 6 -->
    <_>
      <maxWeakCount>3</maxWeakCount>
      <stageThreshold>6.0706529766321182e-02</stageThreshold>
      <weakClassifiers>
        <_>
          <internalNodes>
            0 -1 2 -3.6592665128409863e-03</internalNodes>
          <leafValues>
            6.0975611209869385e-01 -9.7402596473693848e-01</leafValues></_>
        <_>
          <internalNodes>
            0 -1 18 -5.7008704170584679e-03</internalNodes>
          <leafValues>
            5.9552866220474243e-01 -8.4873908758163452e-01</leafValues></_>
        <_>
          <internalNodes>
            0 -1 3 1.4558172225952148e-01</internalNodes>
          <leafValues>
            -9.8246997594833374e-01 4.3920382857322693e-01</leafValues></_></weakClassifiers></_>
    <!-- stage 7 -->
    <_>
      <maxWeakCount>4</maxWeakCount>
      <stageThreshold>-3.5991996526718140e-01</stageThreshold>
      <weakClassifiers>
        <_>
          <internalNodes>
            0 -1 13 6.0669509693980217e-03</internalNodes>
          <leafValues>
            -7.8494626283645630e-01 6.8224298954010010e-01</leafValues></_>
        <_>
          <internalNodes>
            0 -1 10 -5.8029807405546308e-04</internalNodes>
          <leafValues>
            5.6910103559494019e-01 -9.4476675987243652e-01</leafValues></_>
        <_>
          <internalNodes>
            0 -1 17 3.5532984882593155e-02</internalNodes>
          <leafValues>
            -6.7947506904602051e-01 7.5678080320358276e-01</leafValues></_>
        <_>
          <internalNodes>
            0 -1 0 -2.8519076295197010e-04</internalNodes>
          <leafValues>
            -9.0943497419357300e-01 5.8207881450653076e-01</leafValues></_></weakClassifiers></_></stages>
  <features>
    <_>
      <rects>
        <_>
          0 3 3 18 -1.</_>
        <_>
          0 9 3 6 3.</_></rects>
      <tilted>0</tilted></_>
    <_>
      <rects>
        <_>
          0 8 12 16 -1.</_>
        <_>
          6 8 6 16 2.</_></rects>
      <tilted>0</tilted></_>
    <_>
      <rects>
        <_>
          0 14 12 18 -1.</_>
        <_>
          0 23 12 9 2.</_></rects>
      <tilted>0</tilted></_>
    <_>
      <rects>
        <_>
          0 15 28 8 -1.</_>
        <_>
          14 15 14 8 2.</_></rects>
      <tilted>0</tilted></_>
    <_>
      <rects>
        <_>
          1 0 2 10 -1.</_>
        <_>
          1 5 2 5 2.</_></rects>
      <tilted>0</tilted></_>
    <_>
      <rects>
        <_>
          1 0 3 10 -1.</_>
        <_>
          1 5 3 5 2.</_></rects>
      <tilted>0</tilted></_>
    <_>
      <rects>
        <_>
          1 0 9 2 -1.</_>
        <_>
          1 1 9 1 2.</_></rects>
      <tilted>0</tilted></_>
    <_>
      <rects>
        <_>
          2 1 30 9 -1.</_>
        <_>
          12 1 10 9 3.</_></rects>
      <tilted>0</tilted></_>
    <_>
      <rects>
        <_>
          8 10 12 12 -1.</_>
        <_>
          8 14 12 4 3.</_></rects>
      <tilted>0</tilted></_>
    <_>
      <rects>
        <_>
          8 20 18 4 -1.</_>
        <_>
          17 20 9 4 2.</_></rects>
      <tilted>0</tilted></_>
    <_>
      <rects>
        <_>
          9 10 4 9 -1.</_>
        <_>
          11 10 2 9 2.</_></rects>
      <tilted>0</tilted></_>
    <_>
      <rects>
        <_>
          10 13 8 5 -1.</_>
        <_>
          14 13 4 5 2.</_></rects>
      <tilted>0</tilted></_>
    <_>
      <rects>
        <_>
          12 4 2 24 -1.</_>
        <_>
          12 12 2 8 3.</_></rects>
      <tilted>0</tilted></_>
    <_>
      <rects>
        <_>
          13 14 6 1 -1.</_>
        <_>
          15 14 2 1 3.</_></rects>
      <tilted>0</tilted></_>
    <_>
      <rects>
        <_>
          16 11 4 6 -1.</_>
        <_>
          16 11 2 3 2.</_>
        <_>
          18 14 2 3 2.</_></rects>
      <tilted>0</tilted></_>
    <_>
      <rects>
        <_>
          18 10 12 12 -1.</_>
        <_>
          24 10 6 12 2.</_></rects>
      <tilted>0</tilted></_>
    <_>
      <rects>
        <_>
          18 16 2 2 -1.</_>
        <_>
          18 17 2 1 2.</_></rects>
      <tilted>0</tilted></_>
    <_>
      <rects>
        <_>
          21 1 10 20 -1.</_>
        <_>
          21 1 5 10 2.</_>
        <_>
          26 11 5 10 2.</_></rects>
      <tilted>0</tilted></_>
    <_>
      <rects>
        <_>
          28 3 4 15 -1.</_>
        <_>
          30 3 2 15 2.</_></rects>
      <tilted>0</tilted></_></features></cascade>
</opencv_storage>
